1.163809493374143300e-01 6.984189985900307596e-02 2.455635728951213737e-02 1.012844693310512023e-01 -8.710807184778995849e-02 8.367155282706437158e-02 -6.338575373869251295e-02
4.635511319618462744e-02 -8.204429803688798040e-02 -7.176650891198875504e-02 6.486330308842466752e-02 -6.832728130892748442e-02 -2.212459526410663624e-02 -7.605354826727839246e-02
-9.823735451866530410e-03 3.381009636708962041e-02 1.081840983518830845e-02 -1.150679569004962877e-02 -4.641110143245277819e-02 -6.655632249759926844e-02 -6.806573997797527031e-02
-9.207145595579488417e-02 -3.747031588398855306e-02 1.396466375514471281e-02 -5.323093661550543088e-02 1.129731742613101220e-01 -4.296366471718784941e-03 9.150163780237668965e-02
-4.581614095694751254e-02 -4.833935389530218119e-02 2.368530536015758803e-02 6.780815257370720328e-02 5.917268744534884273e-02 5.638787200466802152e-02 -1.122409522751477429e-02
2.213841640943584044e-03 -6.561235209404647772e-02 1.043667346267982410e-01 -9.616485082379500060e-03 -4.018433267115734120e-02 1.898996902129004849e-02 -9.146760849340980493e-02
-8.883367967732466730e-02 1.114418852522632841e-01 -5.557395201541544261e-02 -3.879530983584357495e-02 1.040440838662649303e-01 9.154933882984900295e-02 -1.110533439667244909e-01
-9.921916178654197060e-02 -8.752593711656017628e-02 3.028353347412443552e-02 3.791525610774174049e-02 5.080597184660348709e-02 -1.685158941443862246e-02 8.616632668031223852e-02
5.560304942220556379e-02 6.297150766766013152e-02 -1.046847173336488829e-01 1.822690427568501859e-02 4.107759753195783237e-02 -4.265418913127264067e-02 8.883524714597393346e-02
6.588765367280416396e-02 -2.419978625354303470e-02 1.995970080786904632e-02 1.102320553312718665e-01 -2.977719145701188119e-02 -2.843675108864497647e-02 -1.742777805540857150e-03
1.119905702543925186e-01 3.711552933245670927e-02 -1.500673908019414804e-02 -6.585840110880222809e-02 3.536408750035530124e-02 7.566829648629122551e-02 -4.692455487784186197e-05
8.029506116550966244e-02 -4.765458518169639335e-02 -6.670241725873002347e-02 1.414925575636541422e-02 9.895709876463257282e-02 -8.661661306883183808e-02 -6.937715771741112536e-02
-9.137185346352175164e-03 -2.387856717878897306e-02 5.900451356155111959e-02 7.786013048488685251e-02 3.690494567354798972e-02 4.918896252815649350e-02 4.515628933546589341e-02
2.907712075560353604e-02 6.149277902513333727e-02 -8.335772532460025697e-02 -7.533203467006308052e-02 1.063557458642045428e-01 1.033551228466073058e-04 9.886656838115523427e-02
3.749875035231223230e-02 -6.806650366124031293e-02 -9.358261034160905711e-02 -3.958963004617005454e-02 -2.367783656540364823e-02 1.104967932229049543e-01 5.376584746101573109e-02
-3.686137850077743361e-02 9.023673746267629747e-02 9.407900407023947476e-02 -4.968811261496584863e-02 5.771690716246075104e-02 -2.479747059782520802e-02 1.643102108695423946e-02
1.595658552599932278e-02 -8.365210890368013352e-02 7.603514155685522913e-02 -8.965399053015393749e-02 -1.727216472767970079e-02 5.022307022280486644e-03 3.257035244200282009e-02
8.429236043885857121e-02 -1.042414334233575102e-01 8.964544955841316498e-02 -2.607653873862851579e-02 6.788437290742765917e-02 5.527041302091137420e-02 -1.032230679780195004e-01
-6.279727176481272877e-02 -3.707923836714174803e-02 1.043480262003920744e-02 5.123670996683343803e-02 5.983401289430206882e-02 -9.699360836041935607e-02 -3.330974807303059559e-02
2.267574420280341063e-02 -5.969123796912834123e-04 -8.947163100297474136e-02 -5.082677209935160256e-03 6.458241808389378336e-02 1.129001854842928143e-01 -9.156737531128208984e-02
