-6.118664357887799304e-02 -9.004164491846181062e-02 -9.675780139819775694e-03 -2.455615462491907153e-02 6.754592793107949689e-02 -2.503492486953458329e-02 -1.118478388598595497e-02 -2.911669161464634781e-02 2.591347926695883319e-02 -3.739425153797798496e-02 8.966486784606511606e-02 -1.141494788025867319e-01 1.194564210530979498e-01 1.064579818983142356e-01 -1.057583307644855697e-01 4.664614507502642948e-02 1.293399178602505639e-02 8.067999782452203728e-02 -1.036460681689022334e-01 1.399666649030828491e-02 1.439607422677482984e-02
3.416134724721012206e-02 5.668947288241052429e-02 -3.295066409578663313e-02 -3.554898688978069821e-02 -5.563261954924209052e-02 -1.152088413584733129e-01 8.936906435690586403e-02 9.011734324932724194e-02 1.092771393429359805e-01 4.001534463885644821e-02 -7.845027242966365333e-02 4.040833737251728341e-02 4.205788407040009225e-02 -1.036551744846817974e-01 1.126092392679109433e-02 -1.035644408423660734e-01 4.323082466455671624e-02 -1.168829182978949610e-01 -6.517143505309164198e-02 3.782169835508875089e-02 9.626911279979330494e-02
-1.743512542114557251e-02 -6.668244757630603647e-02 7.493076590341402055e-03 9.552155237659445963e-02 -8.443046602078016494e-02 -1.942078530590279906e-02 7.756036160082394049e-02 -6.821284427407900419e-02 -5.001075050909632724e-02 3.542099076606700092e-02 1.870241121403495854e-02 9.570302474013958616e-02 -4.691489453660621645e-02 4.226327175648569856e-02 -1.930160730242577727e-02 -1.117891198799640384e-01 7.046557133514957938e-03 9.791119606433251743e-03 -9.179977178204286326e-02 -5.586944648900298016e-02 1.932961184263318200e-02
